19 100
</s> 0.004003 0.004419 -0.003830 -0.003278 0.001367 0.003021 0.000941 0.000211 -0.003604 0.002218 -0.004356 0.001250 -0.000751 -0.000957 -0.003316 -0.001882 0.002579 0.003025 0.002969 0.001597 0.001545 -0.003803 -0.004096 0.004970 0.003801 0.003090 -0.000604 0.004016 -0.000495 0.000735 -0.000149 -0.002983 0.001312 -0.001337 -0.003825 0.004754 0.004379 -0.001095 -0.000226 0.000509 -0.003638 -0.004007 0.004555 0.000063 -0.002582 -0.003042 -0.003076 0.001697 0.000201 0.001331 -0.004214 -0.003808 -0.000130 0.001144 0.002550 -0.003170 0.004080 0.000927 0.001120 -0.000608 0.002986 -0.002288 -0.002097 0.002158 -0.000753 0.001031 0.001805 -0.004089 -0.001983 0.002914 0.004232 0.003932 -0.003047 -0.002108 -0.000909 0.002001 -0.003788 0.002998 0.002788 -0.001599 -0.001552 -0.002238 0.004229 0.003912 -0.001180 0.004215 0.004820 0.001815 0.004983 -0.003111 -0.001532 -0.002107 -0.002907 0.002815 0.001579 0.000425 -0.002194 0.001524 0.003059 0.000194 
， 0.002158 -0.005127 0.004421 0.000320 -0.001645 -0.002066 -0.000763 -0.002933 -0.004343 -0.002728 0.004175 -0.001871 -0.002621 0.002183 -0.001868 0.004676 -0.001532 -0.004559 0.002735 0.000056 -0.003642 0.000953 0.001449 -0.000681 0.001889 -0.004092 0.000791 0.001946 -0.003068 0.000118 0.000058 -0.002385 -0.002940 -0.004543 0.000030 0.000152 0.000052 -0.003859 -0.004927 -0.004818 -0.004429 -0.000603 0.001379 0.001090 -0.003234 0.005171 -0.002087 -0.001152 -0.001404 0.004736 -0.003645 0.001027 -0.001411 0.003220 -0.000016 0.004338 -0.002718 -0.002456 -0.004366 -0.003503 -0.003191 -0.003335 0.002660 -0.001937 0.002674 0.003712 0.001401 0.002980 0.002464 0.002428 -0.003405 -0.003728 -0.003544 -0.000218 0.004025 -0.002522 -0.003133 -0.004189 0.003236 -0.004342 -0.000446 0.002212 -0.004708 -0.004376 0.001735 0.003691 0.004126 0.002146 0.003188 -0.003082 -0.003687 0.004053 -0.002600 0.001893 0.000604 0.001894 -0.001313 0.000234 -0.001612 -0.000986 
的 -0.004591 -0.003387 0.003483 0.000895 -0.002241 -0.001529 0.002483 -0.003519 -0.002353 0.004793 0.004181 -0.004048 0.000893 -0.002361 0.000045 0.002912 0.004934 0.002067 0.004153 0.003283 -0.000322 0.004410 0.002498 0.004645 -0.001699 0.004676 0.004235 -0.001329 -0.004496 0.004847 0.001013 -0.002076 -0.000845 -0.000620 -0.003865 -0.001369 -0.000415 -0.004875 -0.003426 -0.001201 -0.001029 0.001775 0.000874 -0.000692 0.002943 0.001580 0.000512 0.003719 -0.001082 -0.001411 -0.000342 -0.002839 -0.003011 0.000273 0.004258 -0.001294 -0.000014 -0.004013 0.003593 -0.001443 0.003027 -0.002581 -0.000739 0.000089 0.003561 -0.000140 0.004442 -0.000689 0.002125 -0.000065 -0.003771 0.004102 0.001205 -0.003106 0.002903 -0.004012 -0.004461 0.003305 -0.003570 -0.002779 0.003605 0.003353 0.000559 0.004627 0.005081 0.004180 0.001664 -0.004442 0.002367 -0.004943 -0.001296 0.001596 0.001106 -0.001481 0.002935 -0.004525 -0.001482 -0.001353 -0.001591 0.003157 
仔 -0.004785 0.002740 0.001334 0.002800 0.003713 0.000294 0.000820 -0.004540 -0.001041 0.003238 -0.001802 0.004195 -0.001181 -0.003907 -0.002626 0.004878 0.003354 -0.003941 0.004839 -0.004165 -0.004801 0.002462 -0.000663 -0.002364 -0.000372 -0.002545 0.002369 0.003842 0.004165 -0.004414 -0.002090 0.000011 -0.000969 0.003858 0.002196 0.004543 -0.003069 0.001729 0.004295 -0.001825 0.002894 0.001283 -0.004500 0.004169 0.004713 -0.002886 -0.000248 -0.001580 0.002460 -0.003858 0.003509 -0.000965 -0.001217 -0.002007 -0.004433 -0.003025 -0.001110 0.004660 -0.002549 -0.004618 0.000417 0.000562 0.003091 0.000075 0.003462 0.002969 -0.001306 -0.000624 0.000808 0.001291 0.003370 0.003965 -0.002455 -0.002537 -0.001658 -0.002647 0.001203 -0.003821 -0.002300 -0.005006 0.002193 0.004381 -0.002246 -0.004529 0.003034 0.001624 -0.002542 -0.000664 -0.001210 -0.000132 -0.001819 0.000059 -0.002732 0.003776 0.003824 0.003283 -0.001486 0.000261 0.000817 -0.002662 
香港 -0.004715 -0.001069 -0.001963 0.002975 0.002706 0.001804 -0.003097 0.003545 -0.001605 0.003389 0.001324 0.004768 0.002538 0.000703 -0.002293 0.004964 -0.002214 0.003330 0.004980 0.004900 -0.000731 0.003258 0.004520 -0.002182 0.004706 -0.004971 0.000234 -0.000412 0.004185 -0.004312 -0.001444 -0.001606 0.000410 0.004759 -0.001655 -0.004921 -0.001478 0.004252 0.001048 0.002893 -0.003839 -0.001286 0.000557 -0.002351 0.003504 -0.004788 0.003265 -0.002375 0.003203 0.003204 -0.001875 0.003537 0.000413 0.004773 -0.003516 -0.001241 0.002792 0.004445 0.002259 -0.000974 0.000482 -0.000791 0.001924 0.002591 -0.003832 -0.001316 0.004295 0.000300 0.004964 0.004821 0.000823 -0.004633 0.004576 0.002175 -0.004602 0.003672 -0.004882 -0.002210 0.004447 0.003358 -0.000713 0.001197 -0.003136 -0.004663 0.002207 0.004412 0.004048 0.002806 0.001511 0.001962 -0.000072 0.001588 -0.002579 0.000905 0.000897 -0.000067 0.002514 0.000735 -0.004139 -0.001340 
。 0.001996 0.003449 -0.003751 0.000917 0.003704 0.003772 -0.004138 0.002780 -0.002629 -0.001441 0.001163 0.002213 -0.004030 -0.002740 0.001181 0.000173 0.004613 0.002202 -0.002745 0.000032 0.000778 -0.002435 0.003173 -0.002800 0.004942 0.000657 -0.004539 0.000440 -0.000479 0.000930 0.003099 0.000139 -0.000323 0.000404 -0.002749 -0.000245 0.003285 0.003524 0.002008 -0.004967 0.000166 -0.002648 0.003660 0.004247 0.003242 0.001618 0.001213 -0.001676 -0.002385 -0.001941 -0.003807 0.000200 0.000793 0.001389 0.002090 -0.003905 0.003132 -0.001331 -0.004322 0.004028 -0.002820 -0.000834 -0.004066 0.004675 -0.001959 -0.004724 0.003881 0.001609 0.003520 0.001340 0.003790 0.000289 0.003752 0.004285 0.001669 -0.000506 0.001158 0.003938 -0.003186 -0.000651 0.001292 0.002063 0.000531 0.003744 0.001511 0.003332 -0.003423 -0.002002 0.001938 0.004642 0.001625 0.000685 -0.004504 -0.004279 0.004306 0.002503 -0.003040 -0.001620 -0.003784 -0.003341 
為 0.004436 -0.002720 0.001046 -0.001092 -0.002204 -0.000545 -0.004593 -0.002309 -0.000240 0.004415 -0.001862 0.003709 -0.004517 0.004188 0.000643 0.000246 0.002622 0.003307 -0.003170 0.003081 0.001334 -0.001196 0.003105 0.000496 0.004274 0.000208 -0.001626 0.003272 -0.003401 -0.000448 0.004044 0.004691 -0.004036 0.001366 0.004020 0.000534 0.002527 0.002683 0.004709 -0.000918 -0.001056 0.003033 -0.004983 0.001116 0.000370 0.004447 -0.003649 -0.000082 0.004463 0.001457 0.002616 0.001269 0.001378 0.001094 0.000219 0.003450 0.003771 0.002889 -0.001933 -0.002758 -0.003201 -0.001127 -0.002436 -0.004073 -0.001882 0.003578 0.002619 -0.004715 -0.002116 0.004035 -0.000364 0.003599 -0.001246 -0.000224 -0.002478 0.001649 -0.004117 0.002831 -0.002316 0.002716 -0.003071 -0.002269 0.004027 0.002583 0.002047 0.001509 0.002959 -0.000471 0.003893 0.003694 0.003384 0.004337 -0.002376 -0.003681 -0.003290 0.000287 0.000896 0.003915 -0.003158 0.003161 
塘 0.003865 0.003513 0.000188 0.001240 -0.000812 0.004644 -0.004348 -0.004694 0.002021 -0.000661 0.004642 -0.001361 0.000020 0.002131 0.001064 -0.002979 0.003340 0.000049 0.001323 -0.001267 0.004640 0.002625 0.004326 0.004556 -0.000926 0.001891 0.001480 -0.002228 0.004299 0.002377 -0.003309 0.004162 0.000472 0.001116 -0.003636 0.002007 0.000248 -0.002363 -0.000593 0.002088 -0.001216 0.003973 -0.002775 -0.002313 0.003735 0.004655 0.003725 0.004585 -0.004741 -0.003286 -0.004688 0.001062 -0.003988 -0.000319 0.000894 -0.002099 0.001149 -0.004413 0.001876 -0.001617 -0.001672 -0.001036 0.002165 -0.001712 -0.002297 -0.003157 -0.001834 -0.004101 0.001932 -0.001245 -0.001213 0.001995 -0.003829 -0.003268 -0.004567 -0.000140 -0.001924 -0.004696 0.002011 -0.004727 -0.002197 0.001504 0.004926 -0.003484 -0.001991 0.004861 0.003086 0.004371 0.003849 -0.002592 -0.002104 0.002118 0.002981 0.003676 0.003263 -0.004461 -0.004440 0.000696 -0.004407 0.002915 
) 0.004176 -0.002077 0.003861 -0.005056 0.004291 -0.002394 -0.000769 -0.004859 0.003027 0.004145 -0.004138 -0.000951 0.000984 0.004390 0.000070 -0.004913 0.000665 -0.001800 0.000909 0.004072 -0.002926 -0.002670 -0.000469 -0.001118 -0.001743 -0.003534 -0.000046 -0.004046 0.004026 0.002698 -0.001303 0.003092 -0.002904 -0.004573 0.004421 0.001177 0.002838 -0.003355 -0.001261 0.003539 -0.001407 0.000960 -0.004550 -0.004017 0.004762 -0.004493 0.000993 -0.003145 0.003867 -0.000381 0.004409 -0.003348 0.001114 -0.004586 -0.003189 -0.001029 0.004178 -0.002494 0.002276 -0.000541 0.003179 0.002713 -0.002610 -0.003737 0.000742 0.000870 0.000716 0.000486 0.002094 0.003785 0.003886 -0.005012 0.004938 -0.004075 0.000581 -0.003850 -0.000867 0.004658 -0.002550 0.001553 -0.002174 -0.000803 0.003397 0.002578 -0.004178 0.001686 -0.000367 0.002080 0.000756 -0.003439 0.000266 -0.003911 0.002972 0.001066 0.001650 0.002778 0.004855 0.004479 0.002588 0.002957 
公 0.001883 -0.001117 0.004627 -0.000353 0.001893 -0.000861 0.001358 -0.000754 0.004242 0.002002 -0.000518 -0.000497 0.002268 -0.003229 -0.002045 0.001434 0.000967 -0.004010 -0.001781 -0.001552 -0.002330 0.003711 0.003848 -0.004358 0.003222 -0.002728 0.001478 0.002323 -0.000279 -0.003757 0.000145 -0.001537 0.002337 0.002509 0.000886 -0.002382 -0.000803 0.000481 -0.002144 -0.004442 -0.000183 -0.002715 -0.002670 0.000596 -0.002660 0.002737 -0.001651 0.003689 -0.003241 -0.001570 0.002530 -0.002436 -0.004413 -0.000898 0.003076 -0.001311 0.004238 0.001932 -0.003028 0.004964 -0.004793 -0.004010 0.003320 -0.003035 0.003599 0.003927 0.002843 -0.001444 -0.002755 -0.000124 0.000019 -0.005222 -0.003683 0.000727 0.000646 0.004978 0.003031 -0.003402 0.004251 -0.001329 0.003308 -0.000994 0.002101 0.000220 0.004220 0.002680 -0.002174 0.004677 -0.004100 0.004431 -0.001751 0.000696 0.001396 0.004221 0.001973 -0.001010 -0.004731 0.003589 0.000493 0.002718 
園 -0.004129 -0.002789 -0.002429 -0.002583 0.003314 0.002555 -0.000313 0.002204 -0.000485 -0.001336 -0.004250 -0.002960 0.000263 -0.002441 -0.002586 -0.004385 0.003131 0.004248 -0.001596 0.003909 -0.002082 -0.004940 -0.005027 -0.000593 -0.002119 0.000150 -0.003795 0.003868 -0.002269 0.001327 0.003711 -0.000205 -0.004857 0.003130 0.000837 0.003333 0.000723 0.002412 0.004412 0.002658 -0.003602 -0.001247 0.003107 -0.001441 -0.002118 0.004627 -0.001525 0.004620 0.002775 0.003904 0.004717 -0.004102 0.000873 0.004042 -0.002584 0.001601 -0.004771 0.004584 -0.003828 0.001922 0.000835 -0.002931 0.002577 -0.000022 -0.004823 -0.003257 -0.000298 0.002137 -0.001195 0.000276 0.004774 -0.004006 0.004235 -0.003017 -0.004183 0.003375 -0.003812 -0.000540 -0.004939 -0.003789 0.003117 0.001720 -0.003799 0.001524 0.004596 0.001091 -0.004628 -0.003357 0.003212 -0.003193 0.001992 0.002989 0.004621 0.001321 -0.003123 0.003626 -0.004259 -0.001286 0.004392 0.004179 
水 -0.002382 -0.003721 0.000444 0.002932 0.002355 0.003543 0.004385 0.000943 -0.004774 0.002496 -0.002523 0.001347 0.003889 -0.002330 0.003625 -0.000076 -0.001501 -0.003904 -0.000764 0.004956 0.001713 -0.002695 0.003216 -0.002775 -0.001314 0.003329 -0.003029 0.000011 -0.002925 -0.001302 0.004408 -0.000904 -0.002963 0.000444 0.001933 0.002761 0.001227 -0.001901 -0.001548 0.001788 0.004802 0.003692 -0.004628 -0.000543 -0.004583 0.001757 -0.003402 0.001550 0.003231 -0.000676 -0.001463 -0.003652 0.000897 -0.004077 0.000096 0.004632 0.003574 0.003587 0.002679 -0.000316 -0.001084 -0.003153 0.000194 -0.002715 -0.002919 0.002734 -0.000952 -0.004285 0.000724 0.000779 -0.001855 -0.004242 -0.004998 0.003014 -0.001107 0.000692 -0.002429 0.003969 -0.004803 -0.003699 -0.001413 0.000676 0.003464 0.000864 0.000707 0.002666 0.002600 -0.004836 -0.000914 0.001971 0.004012 0.002482 0.001382 0.003122 0.001606 -0.001402 -0.002250 0.003149 0.001787 0.001795 
豬 0.000846 0.001585 0.003462 0.002852 -0.004173 0.000460 -0.001962 -0.004947 0.000349 0.004306 -0.000580 0.004177 0.004568 0.000154 0.004016 -0.001494 0.001141 -0.002465 0.000730 -0.001178 -0.004776 -0.001520 0.000970 -0.001595 0.004473 -0.002479 -0.001358 0.003037 -0.000956 0.001689 0.000151 0.000999 0.001593 0.000516 0.004405 0.003072 -0.002723 -0.003969 0.002809 0.002538 0.003752 0.002768 -0.000731 -0.004822 0.001175 -0.002244 0.000193 -0.000727 0.002201 0.000528 0.004485 -0.004396 0.001987 0.003114 0.003553 -0.002547 -0.001812 0.000046 0.001303 0.000600 0.000963 -0.001646 0.004140 0.003328 0.002965 -0.002429 0.000972 -0.003583 -0.000648 -0.000272 0.003204 0.003148 -0.002219 -0.000645 0.004743 -0.000696 -0.001594 0.003484 0.001994 0.003164 0.003885 0.001646 0.003865 -0.004489 -0.000626 -0.004127 0.001761 -0.000375 0.002529 0.000695 -0.000411 0.001289 0.003506 0.003144 0.003755 -0.001218 0.004962 0.002752 0.003164 0.002887 
水塘 0.002001 0.001511 -0.000771 -0.003164 0.002495 0.004083 -0.004165 -0.003436 -0.003736 -0.002648 -0.000632 0.000145 -0.003800 0.000842 -0.001173 -0.001501 -0.002572 -0.003205 -0.004416 0.004960 -0.002545 -0.000567 0.003461 -0.004935 -0.003334 -0.003946 -0.001047 -0.002593 -0.002437 -0.003930 0.001027 0.002493 -0.004672 0.001547 0.000873 0.003769 -0.002271 -0.003062 0.002604 -0.003069 0.004719 -0.000699 0.002480 0.000305 -0.000885 -0.001689 -0.000525 0.004746 -0.003958 -0.004227 -0.004893 0.003295 0.003077 -0.003616 0.003011 0.002052 0.000461 -0.002849 -0.000196 -0.000892 0.000850 -0.002557 0.004471 -0.004807 -0.000700 -0.000453 -0.001860 0.003742 0.003605 -0.002126 0.004976 0.000373 0.003897 -0.000624 0.001105 0.003638 0.002659 0.003763 -0.004307 0.003924 -0.004661 0.002915 0.000105 0.004932 -0.000618 0.001423 -0.001870 0.002071 0.004911 -0.003739 -0.003644 0.003916 0.004763 -0.002924 0.003486 0.001092 0.003852 -0.004241 0.001079 -0.003113 
郊野 0.000095 -0.003116 0.002942 -0.002988 0.003664 -0.002370 -0.004577 -0.000029 -0.003140 -0.002604 -0.002417 -0.003645 -0.004827 -0.001871 0.000777 -0.000427 -0.003833 0.004574 -0.001008 -0.004658 -0.000146 0.003549 -0.001563 0.001804 -0.000802 0.004703 -0.001836 0.000063 -0.000904 0.000092 -0.000415 0.003087 -0.002770 0.004217 -0.003513 -0.003199 0.003953 0.004025 -0.004623 -0.000521 0.001636 -0.000912 -0.004881 0.001909 -0.004335 0.001589 -0.002859 -0.002598 0.003632 -0.004148 -0.004553 0.001572 -0.004429 -0.001011 -0.003825 0.002936 0.004315 0.000574 -0.001556 0.002133 0.004944 0.002495 0.003759 0.002405 -0.004943 -0.000488 -0.004265 -0.000300 0.004935 -0.001506 0.000983 0.002043 -0.002848 -0.001080 -0.001768 0.000615 -0.003237 0.003042 -0.000900 -0.001785 0.001770 -0.004761 -0.002605 0.001044 0.001988 0.002567 -0.000484 -0.002869 0.000112 0.004458 0.004437 -0.002636 0.001435 0.003172 0.003488 0.004986 0.003421 0.002987 0.000592 -0.004259 
建 -0.003480 0.001068 0.002108 -0.002101 0.003187 -0.003022 -0.002976 0.002363 -0.001410 0.002683 -0.003291 0.002327 0.000417 0.002732 -0.004917 0.003601 -0.001178 0.004178 -0.001451 0.004469 -0.003567 -0.003489 -0.003994 -0.004332 -0.001548 0.001794 -0.001138 0.000542 0.002500 0.004548 0.001040 0.004809 -0.001252 0.001813 -0.001089 -0.003198 -0.000138 0.003094 0.001410 -0.002732 0.000968 0.000437 -0.000070 -0.000494 -0.000252 -0.001596 -0.001628 -0.000687 -0.003641 0.003971 0.003180 0.004904 0.003436 -0.003295 0.003203 -0.002853 -0.003852 -0.001371 -0.000123 -0.000725 0.002157 0.004249 -0.002859 -0.002943 0.001609 0.000654 0.001339 -0.001182 -0.002832 -0.002665 0.001419 -0.004713 0.003994 -0.003680 -0.001248 -0.000181 -0.000284 0.002160 -0.002718 -0.001900 0.004537 0.001884 0.003401 -0.001501 0.001077 -0.004990 -0.003991 0.001737 0.004484 0.003561 -0.003465 0.001137 0.002452 0.002106 -0.001149 0.002445 -0.004919 -0.002366 -0.000603 0.003967 
及 -0.004944 -0.000370 -0.002925 -0.003605 -0.002298 0.000345 0.003204 0.003228 0.000303 0.004066 0.001772 -0.000021 0.003308 -0.002158 -0.000780 -0.004845 -0.000654 0.001464 0.004450 -0.000530 0.003373 -0.003373 -0.001226 -0.003934 0.003343 -0.001946 -0.003844 0.001011 -0.000848 0.002734 0.003119 0.002228 0.003601 0.000269 -0.001715 0.000760 0.001917 0.002510 0.003310 -0.000254 0.001497 0.004061 0.001979 -0.004893 0.002686 0.002188 0.000710 -0.004910 -0.001803 -0.004021 -0.001431 0.000237 0.002955 -0.002143 -0.003332 0.004262 0.004883 0.002213 -0.000917 0.002632 0.003946 -0.004115 0.002461 0.003603 0.002820 -0.001190 -0.004837 -0.001834 -0.003222 0.002736 -0.000929 -0.000623 0.003383 0.002194 -0.002270 0.003374 0.002743 0.004375 -0.002179 -0.002113 -0.002251 -0.001325 -0.001835 0.004319 0.003331 -0.002779 0.000145 -0.004581 -0.002961 0.004372 -0.002212 -0.002651 -0.000639 -0.002622 -0.002693 -0.001804 0.002594 -0.004430 -0.002270 -0.001281 
於 0.002289 0.001112 0.000340 0.002247 -0.004165 -0.001488 -0.000816 0.004614 0.003453 0.004790 0.000615 0.004060 -0.002201 -0.000524 0.003540 0.001368 0.004030 0.004601 -0.000634 -0.000182 -0.000198 0.004697 0.001999 -0.004808 -0.004728 -0.003206 -0.002156 -0.004228 0.003094 0.000425 -0.004192 0.002337 -0.001573 -0.002379 -0.002702 -0.001830 -0.001074 0.002912 -0.003780 -0.000948 0.004747 0.003330 -0.001021 0.003264 -0.001454 -0.001594 0.004483 0.001588 -0.004520 0.000172 0.004137 -0.002696 0.003206 0.003158 0.001847 -0.003807 0.001878 0.004397 0.004021 -0.003462 0.004154 0.003418 -0.000437 -0.000881 -0.004810 0.002254 -0.000119 -0.002782 0.002642 -0.004564 -0.001119 -0.003384 -0.003334 -0.000005 0.002968 -0.004407 -0.000082 -0.004538 0.001050 0.004932 -0.002444 0.003868 0.004532 -0.002086 -0.002766 -0.000255 -0.002679 0.000319 -0.000891 0.000124 -0.004178 0.000430 -0.004161 0.004537 -0.001057 -0.000973 0.002578 -0.004987 -0.001911 -0.000609 
上水 -0.003018 -0.003914 -0.002833 -0.002696 -0.000790 0.004785 0.002583 0.001048 0.001915 0.000643 0.003242 0.001402 0.000256 -0.004310 0.000553 0.001649 0.001887 0.004457 -0.001581 -0.002430 -0.003034 0.003977 0.003249 -0.002554 -0.001852 0.003780 0.003948 0.002059 0.000590 -0.004103 0.001922 0.004689 0.001948 0.004860 0.001078 0.001118 0.002379 -0.002300 -0.002178 -0.000373 0.004537 0.003948 0.001060 0.000997 0.003581 -0.004364 0.002198 -0.001490 -0.002834 -0.002706 -0.004857 -0.002054 -0.004553 -0.004046 -0.003699 -0.002412 0.001083 0.001148 0.004578 -0.001784 -0.000772 0.004906 0.001380 0.003112 -0.002461 0.001759 0.000614 -0.001944 -0.003828 -0.001260 -0.001314 0.001331 -0.002216 -0.004621 0.004502 0.003717 -0.002469 0.003707 -0.000531 -0.001505 0.003069 -0.001744 -0.002508 0.001447 0.004554 -0.003943 0.004978 0.000855 0.004642 -0.003359 0.000833 -0.002502 -0.001509 0.002040 -0.003537 0.004660 0.003755 -0.003216 -0.004225 -0.001880 
