151 32
</s> 0.012508 0.013811 -0.011970 -0.010244 0.004271 0.009441 0.002940 0.000660 -0.011261 0.006933 -0.013614 0.003905 -0.002348 -0.002991 -0.010362 -0.005882 0.008060 0.009454 0.009278 0.004992 0.004827 -0.011883 -0.012799 0.015530 0.011879 0.009656 -0.001887 0.012549 -0.001547 0.002296 -0.000466 -0.009323 
香港仔 0.004098 -0.004178 -0.011955 0.014856 0.013685 -0.003422 -0.000707 0.001591 -0.011375 -0.012527 0.014237 0.000198 -0.008074 -0.009506 -0.009608 0.005302 0.000634 0.004155 -0.013173 -0.011895 -0.000405 0.003577 0.007959 -0.009910 0.012747 0.002900 0.003492 -0.001898 0.009340 -0.007149 -0.006560 0.006738 
自然教育徑 -0.002354 0.003221 0.005639 -0.012777 -0.006197 0.009105 0.013225 0.012288 -0.009521 -0.006587 -0.002841 0.006255 -0.011839 0.009368 0.008712 -0.004997 -0.004848 -0.006995 0.013215 0.012225 -0.003687 0.013172 0.015063 0.005673 0.015572 -0.009722 -0.004786 -0.006586 -0.009085 0.008796 0.004935 0.001328 
水塘 -0.006855 0.004762 0.009561 0.000605 0.007124 -0.015477 0.013484 0.001500 -0.005722 -0.006510 -0.002337 -0.009172 -0.013655 -0.008866 0.013366 -0.005531 -0.008373 0.007242 -0.005324 0.014864 -0.005014 -0.014340 0.008487 -0.000232 -0.010902 0.003049 0.004506 -0.001504 0.005701 -0.012368 0.002753 0.005677 
沿途 -0.009403 0.000444 -0.000190 -0.007497 -0.008852 -0.014668 0.000072 0.000477 0.000031 -0.012293 -0.015506 -0.014833 -0.013517 -0.001709 0.004348 0.003701 -0.009945 0.015619 -0.006286 -0.003980 -0.004389 0.014789 -0.011762 0.003628 -0.004173 0.009962 0.000127 0.013342 -0.008810 -0.008141 -0.013101 -0.011459 
野豬 -0.009998 -0.009734 0.007638 -0.005834 0.008375 0.011531 0.004237 0.009221 0.007736 0.007314 -0.011096 -0.010728 -0.011427 -0.000412 0.012908 -0.008552 -0.009563 -0.013113 0.010331 -0.013059 -0.001810 0.006809 -0.014432 -0.013996 0.004509 0.011014 0.013326 0.006705 0.009882 -0.009774 -0.011376 0.012421 
興建 -0.008640 0.005479 0.001794 0.005595 -0.003695 0.000621 -0.005269 -0.003520 -0.013855 -0.010188 0.010892 0.003142 -0.007383 -0.004975 0.007796 -0.011039 -0.007229 0.014795 0.013276 -0.012372 0.002722 -0.007031 0.000476 0.009396 0.015144 0.006208 0.012853 0.009833 -0.000723 0.013984 0.007926 0.014817 
政府 -0.005329 0.014833 0.013528 -0.004461 -0.013811 0.015102 0.002803 -0.006496 -0.002243 -0.002299 -0.012042 -0.004472 -0.001387 -0.015397 -0.010987 -0.003761 -0.002941 0.005594 0.002549 -0.001920 0.009207 0.004520 0.001712 0.011303 -0.003517 -0.004458 -0.001292 -0.008523 -0.009375 0.000633 0.013556 -0.004272 
閘口 0.000053 -0.012909 0.011650 -0.004749 0.009303 -0.007411 -0.002720 0.000423 0.011246 -0.000280 0.013958 -0.002226 0.006527 -0.000349 -0.011982 0.013415 0.003323 -0.009598 0.009628 -0.012932 -0.013614 0.010278 -0.010778 -0.008449 0.011293 0.010311 0.002003 0.014241 0.015076 0.012680 0.005540 -0.013610 
郊野公園 0.007156 -0.015247 -0.004072 0.004676 0.003127 -0.004656 0.009294 -0.014289 -0.004464 -0.004046 -0.005146 0.009608 -0.014899 0.008838 0.004342 0.008877 0.011454 0.000695 0.002788 -0.014269 -0.003022 0.010257 -0.005579 0.013183 -0.003476 -0.012044 -0.008102 0.015238 0.010363 -0.012400 0.015085 -0.013179 
香港仔下水塘 -0.014927 0.007738 -0.002051 -0.007284 -0.001192 -0.007863 0.007487 0.011921 0.013062 -0.013789 -0.006625 0.000029 -0.002928 0.011932 0.006881 0.014168 -0.009609 0.005334 0.013337 -0.005720 0.009130 0.004016 -0.014112 0.013119 0.014717 -0.009112 -0.000758 -0.004999 0.007639 -0.012078 0.010917 -0.002944 
hill -0.003803 -0.006346 -0.013755 -0.009527 -0.003496 0.014431 -0.007878 -0.014492 0.001236 0.001913 0.009503 0.000227 0.010881 0.009323 -0.004090 -0.001991 0.002491 0.003946 0.010423 0.012545 -0.007822 -0.007870 -0.005063 -0.008411 0.003868 -0.011965 -0.007091 -0.015543 0.006800 0.013633 -0.006890 -0.014221 
香港仔上水塘 0.009249 0.004998 -0.007851 -0.002061 -0.003814 -0.000305 -0.005645 0.000156 -0.008651 0.011759 0.011957 0.010188 -0.004627 0.000864 0.002537 -0.008370 -0.014681 -0.003347 -0.006152 0.009284 0.008448 0.005710 -0.009744 0.011090 -0.004974 0.010660 0.004120 0.014935 0.007878 0.002227 -0.007120 0.015524 
上水塘水壩 -0.006965 0.010435 0.015694 0.015342 -0.002213 0.010288 0.014125 -0.006776 0.014650 -0.015583 0.000756 -0.001315 0.013127 -0.013522 -0.004530 -0.005047 0.001334 0.014837 -0.005102 -0.015374 -0.004624 0.013290 0.003217 0.009119 -0.011966 -0.003973 0.001676 -0.007337 0.010931 -0.015019 0.010263 -0.007465 
法定古蹟 0.010064 0.010243 -0.005799 0.011130 0.001363 0.015062 -0.011004 -0.003807 0.008680 0.013793 0.007192 -0.003155 0.001492 -0.002489 0.005972 0.008071 -0.012007 -0.004356 0.013603 0.000899 0.015740 0.015215 0.002538 -0.014382 0.014430 0.007011 -0.014395 0.011358 -0.015340 -0.006748 0.013903 0.010610 
石橋 -0.002309 0.003795 -0.009749 -0.014582 0.006809 0.013825 0.012733 0.008794 0.004622 0.006102 -0.000191 0.004922 -0.008101 0.002801 0.002849 -0.000204 0.007915 0.002261 -0.012948 -0.004283 0.006400 0.011017 -0.011867 0.003119 0.011330 0.011846 -0.012887 0.008686 -0.008294 -0.004626 0.003855 0.007100 
香港 -0.012638 -0.008406 0.003900 0.000742 0.014280 0.006755 -0.008534 -0.000072 0.002655 -0.007472 0.010068 -0.008546 0.015474 0.002136 -0.014024 0.001198 -0.001461 0.002862 0.009522 0.000353 -0.000788 0.001056 -0.008649 -0.000827 0.010170 0.010877 0.006169 -0.015527 0.000650 -0.008202 0.011497 0.013382 
水壩 0.010204 0.004854 0.003915 -0.005407 -0.007555 -0.006108 -0.012181 0.000859 0.002548 0.004323 0.006665 -0.012254 0.009752 -0.004380 -0.013276 0.012383 -0.008892 -0.002432 -0.012923 0.014712 -0.006021 -0.014737 0.012118 0.004986 0.011040 0.004117 0.011556 0.001273 0.011530 0.013603 0.005408 -0.001800 
巴士站 0.003750 0.012254 -0.009742 -0.001791 0.003813 0.006420 0.001750 0.011555 0.004395 0.010259 -0.010409 -0.006196 0.005983 0.014495 0.005050 0.002083 -0.014370 -0.013587 0.013459 0.007586 -0.009302 -0.005139 -0.012036 -0.010684 0.013863 -0.008502 0.003270 -0.003412 -0.006887 -0.001702 -0.014352 -0.007217 
注意 -0.000770 0.013816 -0.005851 0.011597 -0.014091 0.013072 0.002023 0.000775 0.008211 0.010348 -0.009900 0.009593 0.004168 -0.003748 0.009674 0.001529 0.013339 0.000652 -0.005092 0.010221 -0.010599 -0.001395 0.012657 0.014657 -0.012605 0.004247 0.012549 0.001659 0.007899 0.008382 0.014707 -0.002858 
事項 -0.003293 0.009521 -0.015545 0.003513 0.001171 0.013934 -0.011371 -0.000270 0.013932 0.004527 0.008214 0.003962 0.004294 0.003391 0.000687 0.010798 0.011801 0.009034 -0.005985 -0.008595 -0.010005 -0.003480 -0.007642 -0.012717 -0.005839 0.011210 0.008187 -0.014739 -0.006603 0.012628 -0.001130 0.011267 
上水塘 -0.003895 -0.000700 -0.007743 0.005152 -0.012865 0.008846 -0.007237 0.008488 -0.009598 -0.007090 0.012586 0.008070 0.006395 0.004714 0.009246 -0.001472 0.012165 0.011545 0.010575 0.013552 -0.007425 -0.011502 -0.010282 0.000897 0.002800 0.012235 -0.009868 0.009879 0.012079 0.010978 0.000587 0.003876 
下水塘 -0.002537 0.014513 -0.013587 -0.014669 0.006315 -0.002064 0.014506 -0.004253 0.000061 0.006658 0.003324 -0.009309 0.010439 0.000152 0.004134 -0.003959 0.014500 0.008203 0.013520 0.014239 -0.002893 0.005908 0.004626 -0.006961 0.013435 0.007429 -0.010341 0.013007 0.001474 0.003486 -0.011361 0.006272 
風景 0.000774 -0.007384 -0.001853 0.006526 -0.003801 0.012416 -0.008672 -0.007228 0.011673 0.014547 0.011640 0.014327 -0.014814 -0.010270 -0.014649 0.003319 -0.012463 -0.000998 0.002793 -0.006559 0.003592 -0.013791 0.005862 -0.005054 -0.005226 -0.003237 0.006764 -0.005350 -0.007177 -0.009865 -0.005731 -0.012817 
林蔭路 0.006039 -0.003890 -0.003791 0.006236 -0.011965 -0.010212 -0.014272 -0.000438 -0.006012 -0.014674 0.006284 -0.014772 -0.006865 0.004699 0.015395 -0.010887 -0.006222 0.015192 0.009645 0.013659 0.012030 -0.008099 -0.006574 0.006619 0.009315 0.011487 0.010198 -0.013940 -0.013876 0.002174 -0.013772 0.009110 
進發 0.013256 -0.006255 0.011849 -0.015539 0.013075 -0.007451 -0.002294 -0.015132 0.009506 0.012746 -0.012744 -0.002855 0.003038 0.013809 0.000518 -0.015327 0.001972 -0.005728 0.002824 0.012393 -0.008829 -0.008267 -0.001431 -0.003192 -0.005440 -0.010897 -0.000041 -0.012765 0.012629 0.008354 -0.004235 0.009552 
終點 -0.008823 -0.014479 0.013818 0.003703 0.008818 -0.010548 -0.003987 0.011189 -0.004272 0.003057 -0.014194 -0.012422 0.014894 -0.014191 0.003219 -0.010002 0.012119 -0.001257 0.013581 -0.010358 0.003515 -0.014294 -0.009961 -0.003238 0.013008 -0.007891 0.007298 -0.001825 0.009836 0.008674 -0.008370 -0.011489 
探索 0.002300 0.002687 0.002114 0.001460 0.006514 0.011745 0.011897 -0.015224 0.015152 -0.012492 0.001935 -0.012224 -0.002546 0.014450 -0.007752 0.005089 -0.007030 -0.002646 0.010667 0.007906 -0.013437 0.005069 -0.000913 0.006482 0.002159 -0.010745 0.000966 -0.012369 0.008997 0.003135 0.005073 0.008484 
水掣房 0.015377 0.013994 0.007989 0.008982 0.006163 -0.003071 0.014110 -0.000621 0.005280 -0.002650 0.004392 -0.002260 0.013216 0.005981 -0.001145 -0.001304 0.007023 -0.009894 -0.005919 0.004687 0.002813 -0.012677 -0.005536 -0.005283 -0.006737 0.011793 0.012212 -0.013147 0.010111 -0.008263 0.004844 0.006974 
香港仔水塘林道 -0.000843 -0.011809 0.000192 -0.004980 0.007765 0.007503 0.002650 -0.007503 -0.002640 0.001333 -0.006824 -0.013780 -0.000319 -0.008347 -0.008210 0.002068 -0.008221 0.008249 -0.004928 0.011233 -0.010233 -0.005032 0.007419 -0.007282 -0.013680 -0.002779 0.009786 -0.004159 0.013178 0.005729 -0.009057 0.015229 
經過 -0.015178 -0.012129 0.010031 -0.009268 0.011381 0.012344 0.008874 -0.004598 -0.008826 -0.000606 -0.000422 -0.015569 -0.011928 0.002725 0.002424 0.015281 0.009836 -0.010890 0.013628 -0.003750 0.009973 -0.003214 0.006630 0.000468 0.012702 0.008195 -0.006362 0.014665 -0.013113 0.013934 -0.005516 0.002029 
傷健樂園 0.003771 0.012852 0.006120 -0.003691 -0.014411 0.011188 0.001281 0.008084 -0.012835 -0.008386 -0.007754 -0.007558 0.009711 0.007985 -0.000749 0.006951 -0.001473 -0.004418 -0.012812 -0.008882 0.000776 -0.007294 -0.007860 -0.013343 0.009700 0.013167 -0.004933 0.012025 -0.006083 -0.015163 -0.015548 -0.001511 
小食亭 -0.006587 0.000782 -0.011352 0.011636 -0.006989 0.004247 0.011283 -0.000735 -0.014974 0.009276 0.002534 0.010214 0.002026 0.007292 0.013677 0.008364 -0.010924 -0.003922 0.009758 -0.004337 -0.006365 0.014045 -0.004655 0.013999 0.008627 0.012365 0.014178 -0.012243 0.002806 0.012571 -0.008024 0.004860 
無障礙 -0.014949 0.013902 -0.011465 0.005579 0.002450 -0.008780 0.007604 0.000132 -0.014829 -0.010100 -0.000894 0.006547 -0.003680 0.000752 0.014336 -0.011776 0.012852 -0.009042 -0.012698 0.010071 -0.011643 -0.001791 -0.015008 -0.011386 0.009346 0.005361 -0.011647 0.004460 0.013740 0.003101 -0.013910 -0.010353 
燒烤場 0.009790 -0.009888 0.006224 0.009109 0.013919 0.003884 -0.009647 0.010852 -0.013185 -0.004209 0.013291 0.012587 -0.007467 -0.011602 0.001519 0.009253 0.007466 0.010921 0.013703 0.002963 -0.014908 0.007837 -0.007995 0.004167 0.012262 -0.007108 0.011228 -0.000134 -0.004753 -0.012173 -0.002482 0.015454 
洗手間 0.005296 -0.008364 0.010083 -0.008729 -0.004053 0.010504 -0.009381 0.000031 -0.009318 -0.004102 0.013837 -0.002845 -0.009327 0.001389 0.006145 0.008704 0.003918 -0.006076 -0.004818 0.005563 0.015042 0.011629 -0.014542 -0.001678 -0.014209 0.005634 -0.010610 0.004876 0.010074 -0.002020 -0.004671 -0.011376 
設施 0.002804 -0.012740 0.000299 0.014475 0.011168 0.011211 0.008372 -0.000988 -0.003387 -0.009852 0.000607 -0.008485 -0.009123 0.008544 -0.002976 -0.013389 0.002262 0.002435 -0.005797 -0.013258 -0.015619 0.009418 -0.003461 0.002163 -0.007591 0.012403 -0.015010 -0.011560 -0.004416 0.002113 0.010825 0.002701 
補給站 0.002132 0.008489 0.008271 -0.015231 -0.002838 0.006390 0.012608 0.007843 0.003968 0.009625 0.005070 -0.004452 -0.007098 0.009895 0.005718 0.005712 0.002767 0.004724 0.010812 0.008896 -0.012965 0.001519 -0.006362 -0.015525 0.001303 0.013755 -0.001895 0.013197 0.014229 0.000487 0.012291 -0.004667 
午餐 0.003510 -0.007654 0.002340 -0.003701 -0.014876 -0.004645 0.003089 -0.004942 0.013789 -0.007819 -0.004234 0.009469 -0.003004 0.005314 0.000572 0.003174 0.005072 0.001518 0.013736 0.009623 -0.008515 -0.012367 0.008651 0.007877 0.011811 0.008755 -0.002383 -0.014999 0.003670 -0.007058 0.000516 -0.002343 
好地方 0.006833 0.001670 0.014020 -0.013748 0.006266 0.009751 0.011125 -0.007972 -0.005732 0.000102 0.004125 0.001858 0.002942 -0.005148 0.012977 0.010406 0.009332 -0.007644 0.003049 -0.011172 -0.001992 -0.000794 0.009944 0.009848 -0.006875 -0.001968 0.014839 -0.002171 -0.004974 0.010936 0.006196 0.009901 
漁光村 0.012142 0.005144 0.012078 -0.014028 -0.001955 -0.012898 0.005504 -0.001171 0.007904 0.002172 -0.001285 0.004027 0.010958 0.009826 0.011733 -0.003807 0.015507 0.008600 0.009889 0.009020 0.006414 0.004840 -0.002423 -0.009738 0.007607 0.012708 -0.012996 -0.010767 -0.011679 -0.008324 -0.001809 0.000565 
海鷗樓 -0.011890 0.002779 -0.003531 -0.004552 -0.008165 -0.010136 -0.013768 0.015385 -0.007828 -0.001658 0.010938 -0.015306 -0.010389 -0.012314 -0.003144 -0.008247 -0.007549 -0.012320 0.003068 0.007754 -0.014444 0.004673 0.002719 0.011700 -0.007149 -0.009676 0.008016 -0.009592 0.014826 -0.002144 0.007728 0.001008 
香港仔郊野公園 -0.002720 -0.005446 -0.001563 0.014689 -0.012423 -0.013234 -0.015462 0.010457 0.009644 -0.011347 0.009488 0.006377 0.001467 -0.009064 -0.000443 -0.002922 0.002598 -0.007849 0.013825 -0.014997 -0.002100 -0.001355 -0.005811 0.011654 0.011299 -0.006670 0.015355 0.001349 0.012033 -0.001824 0.003592 0.011216 
路段 0.008404 0.011720 -0.013267 0.012446 -0.014727 0.009059 0.000422 0.015294 -0.002182 0.004354 -0.005633 0.006575 0.015276 -0.011673 -0.011415 0.012169 0.014698 -0.009238 0.010911 0.003268 0.012197 -0.013241 0.003238 -0.009876 0.000450 -0.009524 0.009023 -0.009195 0.011194 -0.007363 -0.014215 -0.000061 
比較斜 -0.009769 -0.008223 -0.007392 -0.011281 -0.015078 -0.005757 0.002635 -0.001354 -0.012054 0.014196 -0.003177 -0.014711 -0.000212 0.011108 -0.004807 0.005776 -0.002499 0.014764 -0.005675 0.000048 -0.002802 0.000263 -0.001386 0.009610 -0.008446 0.013013 -0.010982 -0.009973 0.012308 0.012489 -0.014443 -0.001571 
建議 0.005260 -0.002776 -0.015189 0.006007 -0.013475 0.004817 -0.008824 -0.008235 0.011276 -0.013072 -0.014392 0.005019 -0.013746 -0.003220 -0.011872 0.009148 0.013508 0.001657 -0.004683 0.006594 0.015402 0.007907 0.011569 0.007611 -0.015388 -0.001559 -0.013408 -0.000986 0.015375 -0.004769 0.002906 0.006684 
活動 -0.009007 -0.003188 -0.005408 0.001811 -0.009920 0.009532 -0.002706 -0.005352 0.005310 -0.014948 -0.008029 0.003264 0.005922 0.007843 -0.001359 -0.008964 0.000217 0.013940 0.013886 -0.008344 0.004309 0.009693 0.010852 0.015378 0.010872 0.009260 0.001744 -0.013483 -0.010855 0.003364 0.006583 -0.006546 
能力 0.009930 -0.009459 -0.009299 0.007380 -0.004412 0.008388 -0.010259 0.007298 0.001297 0.008565 -0.015338 0.011275 -0.003706 0.013046 -0.004518 0.013939 -0.011120 -0.010886 -0.012465 -0.013517 -0.004831 0.005619 -0.003537 0.001660 0.007835 0.014219 0.003224 0.015036 -0.003881 0.005638 -0.003411 -0.010009 
受障 -0.000431 0.009660 0.004388 -0.008535 0.003050 0.001384 -0.000234 -0.001537 -0.000763 -0.005030 -0.005069 -0.002199 -0.011381 0.012390 0.009902 0.015358 0.010746 -0.010321 0.010011 -0.008924 -0.012018 -0.004315 -0.000348 -0.002292 0.006752 0.013319 -0.008967 -0.009180 0.005045 0.002052 0.004172 -0.003707 
人士 -0.008839 -0.008330 0.004403 -0.014684 0.012465 -0.011479 -0.003881 -0.000606 -0.000870 0.006765 -0.008471 -0.005907 0.014147 0.005874 0.010650 -0.004707 0.003315 -0.015616 -0.012435 0.005435 0.013998 0.011142 -0.010831 0.003521 0.007622 0.006559 -0.003581 0.007620 -0.015326 -0.007393 -0.001916 0.012360 
同行者 -0.015293 -0.000929 -0.009254 -0.011068 -0.007418 0.001049 0.010051 0.010090 0.000977 0.012701 0.005704 0.000151 0.010378 -0.006501 -0.002275 -0.015007 -0.002163 0.004480 0.013947 -0.001691 0.010717 -0.010510 -0.003736 -0.012149 0.010445 -0.006060 -0.011867 0.002936 -0.002493 0.008552 0.009574 0.006943 
陪同 0.011456 0.000612 -0.005332 0.002314 0.005903 0.007717 0.010310 -0.000698 0.004776 0.012777 0.006207 -0.015275 0.008562 0.006515 0.002379 -0.015541 -0.005688 -0.012534 -0.004592 0.000948 0.009390 -0.006772 -0.010312 0.013196 0.015221 0.006711 -0.002574 0.008017 0.012293 -0.012612 0.007392 0.011292 
直接 0.008907 -0.003706 -0.015082 -0.005788 -0.010073 0.008525 -0.003102 -0.001720 0.010529 0.006994 -0.006961 0.010314 0.008699 0.013671 -0.006639 -0.006309 -0.007259 -0.004157 -0.005553 0.013354 0.010015 -0.008893 0.000690 -0.014194 -0.009300 0.013624 -0.006953 -0.008386 -0.002218 -0.008385 -0.008462 -0.005844 
的士 0.008352 -0.013985 -0.007155 -0.004117 0.007097 0.003547 0.001134 0.007152 -0.013230 -0.004618 -0.002647 0.014449 0.010697 0.015229 0.002203 0.012779 -0.006936 -0.001807 0.011279 0.004281 0.012616 0.014461 -0.001990 -0.000720 -0.000373 0.014728 0.006187 -0.014953 -0.014840 -0.010087 -0.006708 -0.013382 
出發 0.009653 0.001328 -0.013098 0.007330 -0.004920 -0.007395 -0.008458 -0.005684 -0.003375 0.009118 -0.011810 -0.002963 0.014764 0.010490 -0.003104 0.010204 -0.004576 -0.005029 0.014045 0.004959 -0.014048 0.000595 0.012890 -0.008485 0.010112 0.009864 0.005795 -0.011905 0.005848 0.013783 0.012564 -0.010859 
斜度 0.013068 0.010582 -0.001243 -0.002742 -0.015073 0.007109 -0.000415 -0.008558 0.008212 -0.014292 -0.003506 -0.010535 -0.010518 0.000153 0.009470 -0.013724 -0.000256 -0.014367 0.003448 0.015414 -0.007594 0.012145 0.014079 -0.006689 -0.008472 -0.000750 -0.008426 0.001129 -0.002811 0.000414 -0.013015 0.001191 
出沒 -0.013004 0.014177 -0.003303 -0.003042 0.008055 -0.015584 -0.005971 -0.001903 -0.009430 -0.012232 -0.008853 -0.008424 -0.002470 0.014953 0.008071 0.003273 0.005985 0.002008 0.010133 0.004382 0.000799 -0.013470 0.001727 0.005154 0.005898 0.013929 -0.004939 -0.007593 -0.009481 0.012428 0.010154 -0.007980 
請勿 -0.005787 0.011812 0.012338 0.006434 0.001844 -0.012822 0.006007 0.014653 0.006088 0.015188 0.003369 0.003493 0.007433 -0.007187 -0.006806 -0.001167 0.014179 0.012338 0.003312 0.003115 0.011190 -0.013638 0.006869 -0.004657 -0.008858 -0.008456 -0.015178 -0.006418 -0.014227 -0.012642 -0.011559 -0.007537 
餵飼 0.003384 0.003587 0.014306 -0.005575 -0.002413 0.015331 0.004313 0.009724 -0.007690 0.005498 0.001920 -0.006074 -0.011961 -0.003937 -0.004106 0.004158 -0.006924 -0.014441 0.014070 0.011614 -0.007715 0.011585 -0.001660 -0.004703 0.009590 -0.005450 -0.007838 0.004523 0.014231 -0.012322 0.015555 0.002671 
一般 0.014507 -0.010497 0.002603 -0.007818 -0.004717 0.006374 -0.011052 0.014561 0.011734 -0.010050 -0.013202 -0.005876 0.001848 -0.006546 -0.015077 -0.012001 0.005177 0.015420 0.011155 -0.001371 0.006582 -0.000302 0.007388 0.005017 -0.001259 -0.008303 -0.014171 -0.006021 0.013391 0.013389 -0.002252 -0.008605 
情況 -0.003666 0.000810 0.008477 -0.000295 -0.005068 -0.008442 -0.008840 -0.002086 0.001862 -0.000208 -0.010745 0.004088 -0.013639 -0.015015 -0.008470 0.012856 -0.012020 0.008173 -0.005431 -0.004591 -0.008417 0.013202 0.002765 -0.006748 -0.010155 0.014234 -0.002925 -0.006799 0.014505 0.001991 -0.002481 -0.010116 
避開 0.011364 0.006258 0.000680 -0.014257 -0.003466 0.002132 0.010951 -0.008968 -0.006058 0.003774 0.009290 -0.007432 0.004076 0.001907 -0.015534 -0.015022 0.003986 -0.004935 -0.004439 0.001956 0.009787 -0.010403 -0.015531 -0.008747 0.014153 -0.000338 -0.005351 0.002188 -0.013678 -0.015267 0.014869 -0.001861 
遊人 -0.002903 0.005846 0.010461 0.012797 0.000090 0.006847 -0.014180 -0.006084 -0.012024 0.001897 -0.015597 -0.009187 -0.007505 0.012969 -0.005021 -0.001884 -0.009304 0.007349 0.014131 -0.012983 -0.001307 -0.008618 0.015002 -0.000980 0.009163 0.010480 0.009801 -0.010309 -0.008657 -0.007134 -0.012704 -0.015090 
挑釁 -0.015217 -0.000426 0.006570 -0.012884 0.005598 0.005702 0.009517 0.006566 0.015213 -0.005839 0.008344 -0.001176 0.014116 -0.013077 -0.008180 -0.010231 0.010609 0.013772 -0.012221 0.013094 -0.010447 -0.012692 0.000613 -0.014698 0.006126 0.015440 0.011281 -0.013040 -0.001684 -0.004860 0.008552 0.012696 
受驚 0.005672 -0.012557 -0.010993 0.002451 0.013060 -0.001301 -0.011708 -0.002269 0.013153 0.011816 -0.012637 -0.014650 0.006441 -0.013733 0.006240 -0.008811 0.001225 0.014337 0.010255 -0.013563 0.013617 0.008625 0.003802 0.012600 0.005043 0.014539 -0.000911 -0.006006 0.007242 -0.008446 -0.015115 -0.012252 
攻擊 -0.002760 0.000747 -0.010948 -0.003694 -0.008789 -0.014143 -0.015340 -0.001333 0.013011 -0.007656 0.015232 0.012863 0.000698 0.011014 0.006999 0.002365 -0.006199 0.009017 -0.012169 0.000795 0.008413 -0.007138 -0.006731 -0.012829 0.005962 0.007807 0.004500 0.010800 -0.013123 0.013381 0.010011 0.003830 
行為 -0.009222 0.008180 0.006643 -0.000074 0.002559 -0.001582 -0.001418 0.009366 0.014828 -0.001731 -0.001823 -0.012341 -0.003069 -0.001328 -0.005883 -0.007896 -0.011660 -0.002162 0.014200 -0.006356 0.005151 0.002468 0.000319 0.002704 0.008834 -0.004760 -0.003757 0.006146 -0.000340 -0.001901 -0.009758 -0.001564 
特別 -0.013709 0.009673 0.010553 0.013298 -0.015321 0.005068 -0.001138 -0.001397 -0.012631 -0.001650 -0.001310 0.003522 -0.004913 0.011641 -0.001238 -0.008444 -0.015183 0.012082 -0.004314 -0.003689 0.003790 0.006206 -0.006217 -0.003155 0.013577 0.007982 0.005489 0.011202 0.014492 0.008154 -0.011949 0.002768 
幼豬 0.015003 0.005466 0.000881 0.005158 -0.000105 0.005976 -0.014518 -0.002400 -0.006906 -0.007483 -0.014464 -0.002230 -0.004769 -0.012404 -0.010252 0.000834 0.014530 -0.010884 -0.005194 0.008704 0.004477 0.004154 0.004701 0.000703 -0.010842 0.015033 0.001162 -0.005166 -0.000044 0.012447 0.003412 -0.014339 
母豬 0.014373 -0.004755 0.008667 0.006880 -0.014108 0.000861 -0.010409 0.006292 0.000849 0.012171 -0.010077 0.001923 -0.002658 -0.011110 -0.001667 -0.011456 0.014911 -0.008297 0.011339 -0.000362 0.007039 -0.003868 0.002054 0.014296 -0.002211 -0.015274 0.014362 -0.011808 -0.012637 0.010801 0.005217 0.009515 
成年雄豬 -0.015523 0.010486 0.002823 -0.012971 0.005100 -0.010076 0.011373 -0.006429 0.010513 -0.005389 0.011967 -0.015474 0.001357 0.015521 -0.006850 -0.013980 -0.014024 -0.011634 0.014297 0.000316 0.011587 0.013571 -0.014287 0.006483 0.008441 0.011174 0.013860 -0.008708 0.008067 0.003269 -0.006811 0.011930 
折返點 -0.012142 -0.011557 0.014496 0.008211 -0.004994 0.004360 -0.011868 -0.009443 -0.009143 0.002583 -0.011041 0.008271 0.007390 0.005099 0.005631 -0.006669 -0.009765 0.010459 0.003559 0.010832 -0.013287 -0.006235 -0.012956 0.008398 -0.010366 0.000465 -0.000315 0.004160 -0.000595 -0.010099 -0.001110 -0.007182 
電動輪椅 -0.006901 -0.008040 0.012567 0.007945 -0.013186 0.012981 0.013804 -0.002635 0.004486 0.004613 0.014829 0.010375 0.015352 -0.011170 0.004409 0.010354 -0.003536 -0.004584 0.010377 -0.000257 -0.004816 -0.000531 0.005877 -0.011203 0.004189 0.015150 0.003118 -0.004419 -0.007284 0.001930 -0.009133 0.014725 
充電 0.000317 -0.010405 -0.003043 -0.013830 0.011854 -0.015507 -0.005467 0.013920 -0.011246 0.000783 -0.004199 -0.008958 -0.005995 -0.002060 -0.010468 0.005913 0.004658 0.005746 0.003556 -0.001523 0.005575 -0.000699 0.011020 0.010235 -0.010567 -0.007235 -0.007121 -0.003244 -0.012030 0.008110 0.000403 0.015168 
辦公時間 0.009487 0.012620 -0.001075 0.005412 0.007597 0.012645 -0.007161 0.008992 0.006226 -0.008906 -0.005649 0.012724 0.005861 0.001190 -0.007768 0.011239 0.014805 0.010217 0.014314 0.006976 -0.013330 -0.006726 0.002490 0.010190 0.007881 -0.004229 0.000218 0.007697 -0.014822 0.008430 -0.003732 -0.005874 
香港仔樹木廊 -0.010639 -0.001463 -0.012778 0.003169 0.005293 0.003688 0.008723 0.013829 -0.005600 0.006795 0.010480 0.012923 -0.011580 -0.001420 0.012511 -0.004920 -0.004345 0.008829 0.011399 -0.006010 0.000967 0.012638 0.011539 -0.011341 -0.002968 -0.007082 -0.006114 -0.002847 0.015589 0.002891 0.009711 0.014100 
郊野公園管理站 0.002453 0.009910 -0.006881 0.010694 0.004996 -0.011087 0.010941 -0.002823 -0.015458 -0.014599 0.012961 -0.008381 0.004196 -0.009949 -0.012173 -0.011317 0.009714 0.001552 -0.005067 -0.009200 -0.013973 -0.005061 0.006934 0.008231 -0.011821 0.015478 0.005159 -0.003715 -0.014619 -0.008437 0.009511 0.012659 
漁護署 -0.013760 0.015295 -0.014645 -0.003286 0.006569 -0.000497 -0.000475 -0.009680 0.007783 -0.010634 0.001847 0.011403 -0.009368 0.007040 0.012094 -0.007877 -0.005568 -0.011495 -0.004086 -0.002642 0.004157 0.002591 -0.011455 0.006162 0.012540 0.000935 0.002745 0.005374 -0.011492 0.005483 -0.004438 -0.010310 
職員 0.003163 0.014990 -0.004862 -0.007455 0.010137 0.004260 0.005679 -0.006890 0.001782 -0.012513 0.008205 0.009608 0.010350 -0.013235 -0.008673 0.005283 0.012405 0.000805 0.014494 0.013675 -0.006933 0.004362 -0.012145 0.014024 0.007547 0.011738 -0.013294 -0.007162 -0.006539 0.013660 -0.000810 0.007759 
尋求 -0.009162 0.008654 -0.008786 -0.001923 0.015640 0.003081 -0.001908 0.005823 -0.002227 0.011030 0.000845 -0.013648 0.000631 -0.007948 -0.011782 -0.003098 0.001104 0.007138 -0.011885 0.008484 0.015179 0.000301 0.004739 0.000257 0.004490 -0.014511 -0.011832 -0.009890 0.000503 -0.015278 -0.010784 0.004221 
協助 0.011792 -0.003455 0.004891 0.013470 -0.008167 -0.003888 0.008117 -0.002964 -0.004263 -0.002607 0.011098 0.004160 -0.007011 -0.008638 0.002603 -0.001674 -0.008275 0.007779 0.010540 0.013083 0.008009 -0.009659 0.007911 -0.003736 0.003460 -0.015481 0.007144 -0.002852 0.009413 0.012277 -0.003202 0.010508 
其他 0.003368 0.009737 0.004891 0.007288 0.001234 0.014400 0.004420 -0.002071 -0.004288 0.009206 0.007642 0.000441 -0.012709 -0.015122 0.003325 0.009453 0.015522 0.002450 -0.011947 -0.003843 0.002768 0.005771 -0.002530 0.002057 0.004204 0.009000 0.012532 0.013968 -0.010931 0.002861 -0.009240 -0.004730 
經驗 -0.003086 -0.014113 -0.008765 0.010905 0.012602 -0.004323 -0.012898 0.008626 -0.002441 0.015142 -0.009433 0.006499 0.014772 0.003753 -0.009599 -0.000846 0.010044 -0.008704 0.014436 -0.010969 -0.000513 0.015369 0.004565 -0.013614 0.007027 -0.003619 0.004247 0.009284 0.001902 -0.012444 0.002250 -0.010147 
分享 -0.007587 -0.012572 -0.004844 -0.006963 -0.005327 0.002346 -0.012639 -0.002162 0.001358 0.015218 -0.008929 -0.008928 0.012957 -0.014481 -0.004945 -0.001380 0.006519 0.005533 -0.004104 -0.008329 -0.001841 -0.012143 -0.002011 0.011731 0.011803 0.009153 0.013539 0.014365 -0.014563 -0.002358 0.000068 -0.005798 
綠洲 -0.010136 0.014360 -0.014594 -0.015066 0.009947 0.003154 0.005198 -0.003185 0.007111 0.009435 0.009152 -0.014589 0.013094 -0.007325 -0.013963 0.007851 0.004948 0.013910 -0.005065 0.004076 -0.001215 -0.014264 0.008990 0.015591 -0.012718 -0.015185 0.009160 -0.002038 0.002176 0.001869 0.015464 0.008317 
Trailwatch -0.010731 0.004182 -0.006766 -0.013402 -0.004076 -0.001896 0.009364 0.005558 0.014816 -0.002207 0.013562 -0.010484 0.015184 -0.006028 -0.005403 -0.004402 0.005329 -0.014822 0.011552 -0.005002 0.001364 0.009006 0.006320 -0.002033 -0.004036 -0.014132 -0.008891 -0.008676 -0.010382 0.000236 -0.014062 0.000947 
Wheel -0.009373 -0.011855 -0.012610 -0.001974 0.015104 -0.012806 -0.000142 -0.007183 -0.006775 0.011541 0.004300 0.003386 -0.012022 -0.010590 -0.010514 -0.006889 0.007664 0.013086 0.014497 -0.004316 0.005896 -0.004834 -0.010022 -0.009891 0.006599 0.012311 -0.009364 -0.005548 0.010263 -0.007256 0.005240 0.003342 
Power -0.006062 -0.002501 -0.000876 -0.012029 0.004988 0.001674 0.007930 -0.010158 0.004837 -0.011820 0.012616 -0.004228 -0.006025 0.010238 0.001952 0.000390 0.011951 0.003885 0.003770 0.006136 0.012381 0.006717 -0.008786 -0.007984 -0.012062 0.001646 0.007741 0.007346 0.001612 0.010643 0.010871 0.015503 
初段 -0.000797 0.000993 -0.002814 -0.012319 -0.003176 0.010295 0.002330 -0.003368 -0.012848 -0.009791 0.007260 -0.002077 0.001925 -0.006043 0.000747 -0.013816 -0.013058 -0.011176 0.010621 -0.004896 -0.010431 0.012409 0.010028 0.003689 0.002480 -0.014880 0.011174 -0.001245 -0.005087 -0.008568 0.002830 0.006180 
環繞 0.006420 -0.001372 0.012826 -0.002843 -0.009386 0.013057 0.014308 0.013188 0.002670 -0.013621 -0.011767 0.009840 0.011827 0.003067 -0.014131 0.012993 -0.004864 -0.000845 0.003800 -0.006162 -0.000040 0.012241 0.015170 -0.006122 -0.012276 -0.006014 0.000936 -0.000070 -0.009832 -0.002388 0.012366 0.006623 
平坦 0.015591 -0.009596 0.014794 -0.014852 -0.013643 0.009960 0.012614 0.008259 -0.011108 0.007940 -0.013217 0.000273 -0.007566 0.006317 -0.011430 -0.012931 0.005283 0.003625 0.014558 0.002337 0.012304 0.006214 0.006640 -0.006168 0.006172 -0.003008 0.008275 0.010870 -0.012625 -0.002068 0.008231 -0.014419 
易走 -0.004536 0.007570 0.003091 0.014155 0.015303 0.001003 -0.002751 0.013096 0.008316 -0.007609 0.002912 0.000472 0.006243 0.003707 0.008849 0.002160 -0.013866 0.002237 0.011643 -0.010648 -0.004648 -0.005673 -0.015561 0.003552 -0.004677 -0.005862 0.001943 0.000327 -0.013464 -0.007607 -0.009576 0.005555 
紙廠 0.008541 -0.012373 0.008965 -0.009573 0.014952 -0.013813 -0.000539 -0.003551 -0.001556 0.002233 0.005368 0.010436 -0.009245 -0.004761 0.015456 -0.004234 0.000187 -0.005011 -0.004943 -0.013868 0.011602 0.007831 0.011065 -0.008213 -0.013573 -0.014575 0.013188 -0.000452 -0.012350 0.012245 -0.009805 0.004044 
私人水塘 -0.007679 -0.006926 0.001168 0.007716 -0.014696 -0.003239 -0.011998 -0.010433 -0.009476 0.006216 -0.005847 -0.001085 0.008471 0.012161 0.008391 -0.000862 -0.015057 0.013132 -0.003951 -0.007322 -0.001444 0.015476 -0.007230 -0.010211 0.010735 0.002103 0.010762 0.008536 -0.009283 -0.005013 0.007545 0.012299 
配合 0.009304 -0.007338 0.010949 0.003520 -0.011141 0.001476 -0.005879 -0.007549 -0.015442 0.004339 0.000516 -0.002840 -0.003111 -0.008027 -0.012345 0.012276 0.002903 -0.005835 0.014619 0.008990 -0.012537 -0.013989 -0.007947 -0.002445 0.005745 0.012922 -0.005336 -0.003961 -0.004263 0.003120 0.011222 -0.000930 
河谷 -0.003010 -0.013609 0.007058 0.009089 -0.005632 0.000331 -0.013433 0.005101 0.011795 -0.003397 -0.006793 0.005171 -0.012739 -0.002823 -0.015504 0.003930 -0.008434 0.000589 -0.011733 0.003817 0.009573 0.013187 0.008914 0.015088 0.002708 -0.013369 -0.003856 -0.006692 0.002710 0.005394 0.001227 -0.004394 
供水 -0.013371 0.005510 -0.010505 -0.006826 0.001829 -0.006672 -0.003407 -0.003734 0.009735 0.014257 0.003476 -0.008302 0.010836 -0.003479 -0.001084 0.005349 0.013432 0.001153 0.010743 0.008410 0.002386 0.003253 0.012103 0.011136 0.001625 -0.014269 0.015203 0.000342 0.011637 0.001808 0.008811 0.001908 
計劃 0.009472 -0.012480 -0.010489 -0.012975 0.011244 0.011714 -0.007054 -0.002803 0.009628 -0.005198 0.000073 -0.012010 0.005114 -0.009995 -0.000337 -0.014717 0.006001 -0.004141 -0.011703 -0.008482 -0.002848 -0.012539 0.001620 -0.014301 0.002495 0.010221 -0.010661 -0.014108 -0.008734 -0.007638 0.002723 -0.013275 
接管 0.003017 -0.005080 0.007104 -0.009359 -0.008638 -0.007008 0.006877 0.007893 0.011475 0.000738 0.014249 -0.005952 0.001345 0.008880 -0.013261 0.006234 0.000523 -0.015296 0.014680 -0.015607 -0.006128 -0.002942 0.008716 0.001278 0.005318 -0.002398 0.012303 0.012457 0.004099 0.008308 0.014213 0.012558 
改建 -0.001484 -0.003539 0.011025 0.004023 0.004683 -0.000340 0.007136 -0.002895 0.015274 0.000814 0.014752 0.009871 -0.000471 -0.009354 -0.008607 0.005700 -0.003002 -0.001059 -0.003860 -0.012968 -0.007456 0.000797 0.002139 -0.004627 0.010094 0.010374 -0.009654 -0.013711 -0.012365 -0.012856 0.012031 -0.014343 
重新 -0.004032 -0.007857 0.001275 -0.004079 -0.011293 0.000469 -0.006276 -0.003917 -0.010223 -0.004969 0.001584 0.004210 -0.000334 -0.002198 0.013625 0.014931 -0.004574 0.007318 -0.004821 -0.000562 -0.006830 -0.001324 0.013141 -0.000766 -0.014427 -0.013964 -0.014033 0.001135 0.004374 -0.008629 -0.003823 -0.000228 
啟用 -0.004627 0.013216 0.009103 -0.002416 0.005934 -0.004582 -0.002110 0.004826 -0.002518 0.014638 0.005994 0.008315 0.001757 -0.000901 -0.009065 0.002678 -0.004192 0.009836 0.011796 -0.009641 -0.004251 -0.009305 0.010470 0.012860 -0.005745 -0.012911 -0.000834 -0.005502 -0.008184 -0.010262 -0.002099 -0.007598 
遠眺 -0.003269 -0.002821 0.003259 0.009013 -0.006136 -0.015492 -0.011617 -0.007915 0.007141 -0.002863 -0.003268 -0.009065 0.005800 -0.005463 -0.014176 0.000191 -0.001858 0.006494 0.014741 -0.008955 0.000280 0.008106 -0.005872 0.005002 0.004890 0.013532 -0.001307 -0.002374 0.012461 0.013496 -0.014047 -0.005203 
香港仔避風塘 0.000042 0.006532 0.014993 -0.001043 0.014997 -0.001011 -0.003545 -0.010890 -0.012497 0.005025 0.005048 0.014571 0.011797 0.015365 -0.001710 0.007470 0.002430 -0.002707 0.004014 0.001498 0.006765 -0.011593 -0.004636 0.006909 -0.013771 0.002866 -0.015452 0.010520 0.003809 0.000144 -0.008416 0.006958 
怡人 0.005306 0.010026 0.013055 -0.001333 0.006834 0.007610 -0.009145 -0.004100 0.001068 0.007055 -0.000308 -0.014528 -0.011503 -0.000916 -0.002915 -0.006736 0.008671 0.013483 0.010865 -0.009534 0.015203 -0.005902 0.014178 -0.012668 0.000771 -0.013659 -0.012019 0.001929 -0.002890 0.012184 0.014792 -0.002365 
景色 0.012524 0.007661 -0.002555 0.008143 0.000624 0.010372 0.002833 0.012455 -0.014664 0.003225 0.011914 -0.002611 -0.001600 0.008193 0.013457 -0.011177 -0.014385 -0.007437 0.004045 -0.010801 -0.005655 -0.006070 -0.011930 0.008770 -0.013985 -0.004794 0.008992 0.003104 -0.007635 -0.012887 -0.006921 -0.001922 
融合 -0.009556 -0.000563 -0.000587 -0.003866 -0.003633 0.007274 0.001140 0.007527 0.002808 -0.006464 0.010465 -0.012178 0.010256 0.011444 -0.015092 -0.005851 -0.004238 -0.002966 0.014802 -0.002302 0.006689 -0.012097 0.010791 0.008725 0.004463 -0.001788 -0.014918 0.014044 -0.010427 -0.012566 -0.011056 0.008286 
中國宮廷 0.001568 -0.014647 -0.012290 -0.006109 -0.005938 -0.001683 -0.014226 0.012364 -0.009018 0.009237 -0.004657 -0.011980 -0.007185 0.008834 0.005187 0.009240 0.007862 -0.004355 0.011888 -0.015287 -0.010263 0.007267 -0.011411 -0.012805 -0.006386 -0.004641 0.009999 0.003500 -0.011267 0.013145 0.002387 -0.002990 
意大利 0.014645 -0.003340 -0.006415 0.001414 -0.006289 0.014751 -0.012013 -0.004283 0.012360 -0.012171 -0.002200 -0.002016 0.008577 0.000366 0.011794 0.002846 -0.009335 -0.011603 -0.004699 0.012743 0.005987 -0.010479 0.015216 0.006680 -0.015282 -0.013354 -0.010005 0.002722 -0.010153 0.001747 0.002158 -0.004501 
建築風格 -0.001575 0.002107 -0.014213 -0.012548 -0.004686 -0.005925 0.007777 -0.011165 0.004440 -0.008189 -0.013415 -0.013536 -0.004957 -0.013962 0.004729 0.006218 0.006672 0.006540 -0.003707 -0.011961 -0.007059 -0.002835 -0.003079 0.004681 0.009026 0.003324 -0.012431 0.011710 -0.007086 -0.015511 -0.011743 0.003754 
天主教 0.015408 0.001695 -0.004432 0.014506 -0.001131 -0.001210 0.013896 -0.008281 -0.001526 -0.010066 -0.007052 -0.015291 0.014711 -0.002900 0.015243 -0.011894 -0.006618 -0.012427 0.014863 0.004351 0.013098 -0.001050 -0.003797 0.012448 0.004036 0.014143 0.002721 -0.000787 -0.002066 -0.007378 -0.008065 -0.009475 
修道院 0.003094 -0.004576 -0.008323 -0.011175 0.004377 -0.002354 0.006343 0.004368 -0.005539 0.013448 -0.014361 -0.007280 0.005083 0.002304 0.012084 0.011010 0.013294 -0.006003 -0.011489 -0.000822 0.003958 -0.005124 0.013064 -0.001270 0.000999 -0.012148 0.004201 -0.003519 0.004908 -0.005105 0.013190 -0.012939 
有趣 -0.007267 0.014543 0.005364 0.004160 0.011839 -0.009358 -0.014882 -0.004467 -0.007599 -0.000147 -0.004092 0.010497 -0.002592 0.001647 -0.004746 0.012429 0.003910 -0.005438 0.010987 0.003771 -0.003229 -0.015057 -0.014997 -0.005222 -0.000084 -0.013049 -0.007991 0.003516 0.013834 -0.008690 -0.010476 -0.006637 
動植物 0.015575 -0.003447 0.005380 -0.001989 -0.009996 0.009029 0.012721 -0.003536 -0.007706 0.011648 -0.007495 0.006789 -0.008314 -0.004868 -0.003999 -0.007637 -0.003521 -0.010733 -0.011458 -0.013120 -0.008463 0.000400 0.005771 0.000592 0.000786 0.011442 -0.002604 -0.010934 -0.006536 0.013114 0.014686 0.009430 
廿四味 0.009121 0.003953 -0.008277 0.001627 0.001371 -0.009694 -0.004598 0.007161 -0.005859 -0.013667 0.006680 0.012846 -0.012083 0.014007 0.014327 0.013314 -0.008999 0.009363 0.014924 0.011004 -0.011744 0.009998 0.012866 -0.015079 0.003609 -0.001177 -0.010890 -0.015619 0.006296 -0.002190 -0.005075 0.004014 
成份 0.004620 0.005495 -0.004355 0.015009 0.014692 -0.003026 -0.004338 -0.003627 -0.002060 -0.013590 0.007184 -0.002580 -0.013899 -0.004227 -0.012269 0.012780 -0.012524 -0.007651 -0.003615 0.013644 -0.013071 0.013736 0.006289 0.010266 0.008385 0.011594 -0.001597 -0.010538 -0.010168 0.007896 -0.007257 0.008362 
淡竹葉 0.002071 0.001176 -0.014106 0.006907 -0.001284 -0.002217 0.013499 -0.004650 0.003693 0.011877 -0.005984 -0.008241 -0.013762 0.002929 0.009963 -0.009239 -0.014095 0.000726 -0.004577 -0.005201 -0.012445 0.011615 -0.013959 0.014126 0.015114 -0.012743 -0.005977 0.004309 0.006571 0.012123 0.008140 -0.008773 
糭子 0.001476 -0.009001 -0.006278 0.008570 -0.015306 -0.007267 -0.013585 0.004094 0.011398 0.000234 -0.001575 -0.004137 -0.011671 0.004226 -0.012727 0.009758 -0.013714 0.003244 0.012040 -0.014280 -0.009867 0.003635 0.014621 -0.003498 -0.007454 -0.011691 0.007222 -0.002328 -0.005987 0.010490 0.009864 0.015107 
水銀竹 0.002834 0.006212 -0.012122 -0.011251 0.003874 0.013072 0.008159 -0.008647 -0.010193 0.013982 -0.010837 0.009734 -0.007627 -0.000336 0.013412 0.007271 -0.011379 -0.000098 0.014985 -0.013593 -0.005335 -0.010205 -0.001721 -0.011356 0.003181 0.014753 0.006749 0.000800 0.014658 0.002998 -0.002084 -0.013748 
遨翔天際 0.006145 0.015565 -0.000388 0.009943 -0.006243 -0.003697 -0.015019 -0.011623 0.001419 -0.009379 -0.002521 0.002120 -0.001631 -0.010758 -0.005372 0.014550 -0.007092 -0.009299 0.004258 -0.003141 0.001150 0.001346 -0.000485 -0.009449 -0.015480 0.004087 -0.007396 0.013693 0.006006 -0.010354 0.003547 -0.001586 
黑鳶 0.011410 -0.012190 -0.002326 0.009654 -0.014406 0.004924 0.010631 -0.004833 0.014984 -0.007349 -0.007876 0.004271 0.006319 0.004211 -0.006577 0.000344 -0.000851 0.006891 0.011109 -0.014173 0.009588 0.007038 -0.012921 0.002224 -0.000938 -0.012438 -0.003963 0.005103 -0.000692 0.001686 -0.004495 -0.010910 
末段 -0.012627 -0.014436 0.013447 -0.012064 0.010656 0.007835 -0.008661 0.011773 -0.000837 -0.011246 0.004367 -0.015101 -0.015082 0.013280 0.009861 -0.004094 0.007397 -0.014162 0.004408 -0.015476 -0.011197 0.006969 -0.007826 -0.007589 0.015669 -0.003464 -0.014196 0.006255 -0.005497 0.007913 0.005044 -0.010478 
天花墩 -0.003420 0.008644 0.015389 0.007168 0.006438 0.004747 -0.010270 0.006837 -0.014602 0.010282 0.002998 0.006610 -0.003182 -0.014769 0.012552 0.001243 -0.013718 -0.009726 0.015202 -0.006986 0.001194 0.000930 0.014931 -0.007624 0.002857 -0.000417 -0.006920 -0.014054 -0.008331 0.008315 0.000930 -0.000209 
舊式量雨器 0.007714 -0.005391 0.003698 0.004972 0.004097 -0.004167 0.005604 0.011694 0.004898 -0.005284 -0.012155 0.006833 0.010659 0.013851 0.001550 -0.015010 -0.001591 -0.011098 0.012308 0.011318 0.015520 -0.010979 -0.007296 0.002148 -0.008064 -0.003269 -0.013276 0.006643 -0.009153 0.002794 0.014424 -0.011472 
good -0.010511 0.005732 0.009429 0.012417 0.003701 0.012075 0.007786 -0.005041 -0.004937 0.004604 -0.009787 -0.014515 -0.004833 0.005521 0.008088 0.009917 0.012471 0.013064 -0.004474 0.008122 0.000362 0.002472 -0.011947 -0.009662 0.014275 -0.012099 -0.001909 0.005891 -0.007955 -0.008761 0.014121 -0.013065 
conditioned 0.004540 0.011218 0.001622 -0.001551 0.005381 -0.008583 -0.003697 -0.011897 -0.012953 0.008655 0.010355 0.005324 0.012857 -0.008884 0.001106 0.013332 -0.002818 -0.000082 -0.003397 0.014732 -0.012684 0.010085 0.001034 -0.011673 0.007392 0.004574 -0.004419 0.014883 -0.004956 0.005336 0.000199 -0.004717 
monkey -0.009739 0.010728 0.011437 -0.005758 0.008879 -0.003895 0.002421 -0.009014 0.012390 0.006780 -0.014621 0.003508 0.001284 0.002227 0.011580 -0.004814 0.015110 0.012231 0.015107 -0.000288 0.007483 0.011890 0.000354 -0.003910 0.002327 0.015363 0.010777 0.002387 0.000132 0.013374 0.003898 0.013230 
sea 0.009197 0.004457 0.007546 -0.000188 0.014387 -0.005040 -0.005132 0.003636 0.008377 -0.000956 0.009320 0.011519 -0.008345 0.007431 0.008422 -0.013160 0.003773 -0.012595 -0.011245 -0.005460 -0.001657 0.007816 -0.014035 0.013623 -0.000710 -0.010928 0.012258 -0.000345 0.007105 -0.015603 -0.006097 0.009766 
difficulty -0.001163 -0.007674 -0.010016 0.015147 -0.009401 -0.012043 0.004893 -0.005199 0.006317 -0.014552 -0.011661 -0.001955 0.015230 0.006774 -0.008409 -0.011741 -0.005611 -0.012030 0.011231 -0.000867 -0.008844 -0.002118 -0.010846 0.009671 -0.001793 -0.011828 0.000066 0.006690 -0.015219 0.012062 0.001487 -0.015182 
worth -0.009571 0.005586 -0.010001 0.008997 0.000013 0.006343 0.001246 -0.004268 0.006210 -0.002757 -0.015063 -0.005662 0.009508 0.000259 -0.007661 -0.000556 -0.013042 0.013925 -0.011214 0.013491 -0.014078 0.013340 0.009921 0.015484 -0.000923 0.012662 0.005452 -0.007761 -0.004339 0.002616 -0.004601 0.000885 
challenging 0.015224 0.012987 0.007592 0.012614 0.011381 -0.012379 0.015178 0.006428 0.008057 0.003179 -0.000888 0.000395 0.005739 -0.012116 0.010665 -0.010856 0.012730 0.002771 0.015168 0.006365 0.013891 -0.008313 -0.014234 -0.000186 0.001900 0.000043 -0.002833 -0.012445 0.008493 -0.012688 0.006888 -0.004531 
trial 0.010723 0.014528 0.011514 -0.005254 -0.006548 -0.005711 0.015437 -0.004360 0.011856 0.003255 -0.000384 -0.015031 0.003923 0.000900 0.015319 -0.011390 0.009205 -0.014243 -0.003371 0.009005 0.012564 -0.004574 0.010440 -0.006092 0.006676 0.012815 0.006459 -0.007364 -0.007971 -0.002602 0.004706 -0.000183 
郊野 0.008175 0.010210 0.001763 -0.013357 0.008726 -0.004902 0.002025 -0.005382 -0.013641 -0.002528 -0.013553 0.010558 0.004061 0.008056 0.006301 -0.002159 0.007633 -0.005866 -0.004333 -0.009840 0.013189 -0.006695 -0.009809 -0.002231 0.013405 -0.011523 0.002080 0.007483 0.008768 0.001625 -0.011147 0.013932 
公園 0.007580 0.000032 0.009591 -0.011693 -0.005297 -0.009953 0.006190 0.003361 -0.005936 -0.014170 -0.009143 0.014662 0.006151 0.009353 0.014861 -0.014411 0.008015 -0.003348 0.012284 0.012331 -0.015482 -0.014676 -0.012479 0.011395 -0.009163 -0.010470 0.015279 0.000845 -0.003790 -0.000008 -0.009423 0.006562 
大成紙廠 0.008938 0.015245 0.003747 -0.000265 0.013884 0.010387 -0.003316 -0.009380 0.003723 -0.000422 0.012845 -0.002717 0.010195 0.004791 0.009749 0.014351 0.010349 -0.006690 0.015229 0.013018 -0.010950 0.002735 0.002429 0.003537 0.001472 -0.015276 0.014806 0.003973 -0.014395 -0.007500 0.009879 0.008957 
私人 0.012249 -0.006651 0.015481 -0.010320 0.003767 -0.006382 0.004756 -0.012355 0.015335 0.007467 -0.010089 -0.010332 -0.015059 -0.005631 -0.009034 -0.009620 0.014637 0.015359 0.004502 -0.007780 -0.004465 0.014286 0.003665 0.005444 0.014061 0.005308 0.000661 -0.014383 0.008204 0.010398 0.015510 -0.010131 
增加 -0.013737 -0.003157 0.013543 -0.010610 -0.004396 0.002239 -0.000844 -0.005565 -0.002350 0.009496 -0.015445 -0.008180 -0.007109 0.009338 -0.010240 0.007424 -0.010372 0.000299 0.011353 0.012438 0.003973 -0.011273 -0.008771 -0.014133 -0.002647 -0.011218 0.004094 0.008276 0.001505 -0.008812 0.007468 0.011796 
鴨脷洲 -0.006519 -0.005522 -0.002067 -0.001134 -0.010607 0.005001 0.011134 0.010991 0.013168 0.005666 -0.003222 0.003737 0.002794 -0.012803 0.006133 0.002984 -0.002178 0.010629 0.004533 0.011172 0.014364 -0.011441 -0.003629 0.007306 0.013847 -0.002352 -0.006145 0.009451 -0.003241 -0.002633 -0.014245 0.012238 
供水量 0.002651 -0.013747 -0.000098 -0.013143 -0.014864 0.001903 0.009440 0.006062 -0.000610 -0.004023 -0.004672 -0.005830 0.014650 -0.009552 0.008834 0.008309 0.007969 0.015100 0.015290 -0.011579 -0.004541 0.013782 -0.012158 0.007260 0.001045 0.000654 0.001195 -0.010858 -0.006033 -0.002312 0.012870 -0.008804 
上游 0.013775 0.003419 -0.011802 -0.015386 0.014082 -0.007054 -0.005925 0.010899 -0.012436 0.011678 0.011456 -0.005632 -0.002790 -0.012162 -0.002137 -0.007850 -0.011181 0.013711 0.012376 0.006686 0.009756 0.001895 -0.003110 -0.014270 -0.009804 -0.002200 -0.005137 0.009848 -0.006872 -0.007851 -0.004937 0.011170 
完成 -0.004398 0.014726 -0.005927 -0.007864 0.013731 0.009380 -0.003713 -0.005748 0.008942 -0.009730 0.013913 0.004332 0.012972 0.010620 0.004470 -0.014244 0.002872 0.006464 -0.004210 0.003466 -0.005243 0.015399 -0.007733 0.005215 0.012550 -0.010912 0.006108 0.009070 -0.005758 0.012001 -0.005166 0.009659 
修築 0.010632 -0.011076 -0.013724 0.009425 0.015333 -0.011296 -0.015172 -0.012630 0.001022 -0.005747 0.002698 -0.007188 -0.000563 -0.003708 -0.002595 -0.010871 -0.012371 -0.006644 -0.003219 0.010012 0.012960 -0.008206 0.005221 0.003216 0.005608 0.005765 0.003682 -0.013193 -0.002691 -0.005257 0.012183 -0.013336 
重建 -0.003635 -0.011488 -0.003943 0.005229 -0.012362 -0.006581 -0.009053 -0.009746 -0.004944 -0.007624 0.009061 -0.008943 -0.012144 0.007354 0.007918 0.002266 0.005589 0.005640 0.015351 -0.004926 0.001867 -0.006421 0.004504 0.010983 0.000618 -0.014666 -0.012416 0.005560 0.002329 0.002876 -0.015389 0.004685 
工程 0.015301 0.013490 -0.007834 0.010798 -0.006853 -0.007725 0.014644 0.002903 -0.008957 -0.015360 0.001752 -0.000932 0.009478 0.012558 0.004760 -0.006080 -0.005749 0.012064 -0.011001 -0.010099 -0.007273 -0.010495 -0.009885 -0.002735 -0.002419 -0.009707 -0.010936 0.002829 0.009302 0.005149 0.005866 0.001221 
林道 0.004940 0.001359 0.005853 -0.005117 0.000608 -0.014729 -0.006581 -0.005931 -0.011017 0.002294 0.012021 -0.014406 0.001802 0.011901 -0.012071 -0.004661 -0.015133 0.012628 0.011476 -0.005506 -0.014460 0.010822 -0.006696 -0.006687 -0.003502 -0.010607 0.008122 0.009863 -0.013021 0.001564 0.013450 0.007523 
寬闊 -0.003468 0.014619 0.005868 -0.011266 0.010023 0.003658 -0.010228 -0.005001 -0.011124 0.014089 0.008618 0.013136 -0.003920 0.005386 -0.011323 0.006524 0.008686 0.007333 -0.010970 0.008852 0.011557 -0.004971 0.014071 -0.000873 -0.002632 0.013883 0.013509 -0.004587 -0.002142 -0.007882 0.007361 -0.007659 
漁光道 -0.009922 -0.009230 -0.007789 -0.007650 -0.009859 -0.015065 0.003703 0.005696 -0.009277 -0.011225 -0.008456 -0.012056 -0.007689 -0.006989 0.007003 -0.003776 0.003208 -0.003821 0.015412 0.001727 0.008276 0.004627 -0.010083 0.014706 0.000191 0.001264 0.005223 -0.009271 0.010691 0.008064 -0.012399 -0.013076 
香港仔水塘道 -0.014423 -0.007689 -0.003867 0.005732 0.003462 -0.008397 0.003963 -0.005092 -0.005478 -0.011149 -0.007953 0.003767 -0.009504 0.006027 0.011657 -0.004310 -0.000317 0.010416 -0.003127 0.004366 0.006948 0.008365 0.014590 0.008801 0.004967 0.014036 0.014516 -0.004190 -0.005774 -0.013100 -0.014581 -0.008728 
看見 0.014278 -0.012007 -0.013618 -0.002370 -0.012514 -0.007588 -0.009450 -0.006114 0.000275 0.014318 0.010129 -0.001894 -0.009367 0.013183 0.002639 0.004921 -0.001888 -0.012457 -0.004088 -0.014478 0.007574 0.006244 -0.005658 0.012661 0.011696 -0.010302 0.010137 0.010657 0.010965 -0.008873 0.000815 0.005387 
橫臥 0.013683 0.009065 -0.005790 -0.000707 0.004713 -0.012639 -0.005284 0.002629 0.007980 0.002676 0.014539 0.002211 -0.007277 0.014480 0.011199 -0.007331 -0.001507 -0.009940 0.012528 0.007693 0.010153 -0.001736 -0.008328 -0.004962 -0.010872 -0.009249 -0.007915 0.004019 -0.001593 -0.010506 0.002540 -0.001983 
山林 0.015041 -0.006972 -0.011634 0.010722 -0.007357 0.007701 -0.014791 -0.010112 -0.013611 -0.014826 0.005277 -0.015169 -0.003233 0.009918 0.006087 -0.009819 0.000828 -0.013281 0.015473 0.008379 0.014685 -0.015576 0.006579 -0.012821 -0.000237 -0.014056 -0.008388 0.007147 -0.012197 0.013252 -0.009408 0.000412 
